digraph Tree {
node [shape=box] ;
0 [label="Av LCAL <= 3.056\ngini = 0.5\nsamples = 1383\nvalue = [692, 691]"] ;
1 [label="#TreesCherry <= 0.394\ngini = 0.434\nsamples = 478\nvalue = [326, 152]"] ;
0 -> 1 [labeldistance=2.5, labelangle=45, headlabel="True"] ;
2 [label="#TreesCherry <= 0.226\ngini = 0.256\nsamples = 113\nvalue = [96, 17]"] ;
1 -> 2 ;
3 [label="Av Dist <= 2.817\ngini = 0.435\nsamples = 25\nvalue = [17, 8]"] ;
2 -> 3 ;
4 [label="#DifferenceCherry <= 0.789\ngini = 0.48\nsamples = 10\nvalue = [4, 6]"] ;
3 -> 4 ;
5 [label="Av LCAL <= 2.789\ngini = 0.444\nsamples = 9\nvalue = [3, 6]"] ;
4 -> 5 ;
6 [label="#DifferenceCherry <= 0.389\ngini = 0.49\nsamples = 7\nvalue = [3, 4]"] ;
5 -> 6 ;
7 [label="gini = 0.5\nsamples = 4\nvalue = [2, 2]"] ;
6 -> 7 ;
8 [label="gini = 0.444\nsamples = 3\nvalue = [1, 2]"] ;
6 -> 8 ;
9 [label="gini = 0.0\nsamples = 2\nvalue = [0, 2]"] ;
5 -> 9 ;
10 [label="gini = 0.0\nsamples = 1\nvalue = [1, 0]"] ;
4 -> 10 ;
11 [label="Av Dist <= 2.974\ngini = 0.231\nsamples = 15\nvalue = [13, 2]"] ;
3 -> 11 ;
12 [label="#DifferenceCherry <= 0.417\ngini = 0.142\nsamples = 13\nvalue = [12, 1]"] ;
11 -> 12 ;
13 [label="gini = 0.32\nsamples = 5\nvalue = [4, 1]"] ;
12 -> 13 ;
14 [label="gini = 0.0\nsamples = 8\nvalue = [8, 0]"] ;
12 -> 14 ;
15 [label="#DifferenceCherry <= 0.5\ngini = 0.5\nsamples = 2\nvalue = [1, 1]"] ;
11 -> 15 ;
16 [label="gini = 0.0\nsamples = 1\nvalue = [1, 0]"] ;
15 -> 16 ;
17 [label="gini = 0.0\nsamples = 1\nvalue = [0, 1]"] ;
15 -> 17 ;
18 [label="Av LCAL <= 2.726\ngini = 0.184\nsamples = 88\nvalue = [79, 9]"] ;
2 -> 18 ;
19 [label="#DifferenceCherry <= 0.707\ngini = 0.255\nsamples = 60\nvalue = [51, 9]"] ;
18 -> 19 ;
20 [label="#TreesCherry <= 0.343\ngini = 0.222\nsamples = 55\nvalue = [48, 7]"] ;
19 -> 20 ;
21 [label="#TreesCherry <= 0.325\ngini = 0.278\nsamples = 36\nvalue = [30, 6]"] ;
20 -> 21 ;
22 [label="Av LCAL <= 2.707\ngini = 0.142\nsamples = 13\nvalue = [12, 1]"] ;
21 -> 22 ;
23 [label="gini = 0.0\nsamples = 7\nvalue = [7, 0]"] ;
22 -> 23 ;
24 [label="gini = 0.278\nsamples = 6\nvalue = [5, 1]"] ;
22 -> 24 ;
25 [label="#DifferenceCherry <= 0.333\ngini = 0.34\nsamples = 23\nvalue = [18, 5]"] ;
21 -> 25 ;
26 [label="gini = 0.375\nsamples = 12\nvalue = [9, 3]"] ;
25 -> 26 ;
27 [label="gini = 0.298\nsamples = 11\nvalue = [9, 2]"] ;
25 -> 27 ;
28 [label="Av Dist <= 2.613\ngini = 0.1\nsamples = 19\nvalue = [18, 1]"] ;
20 -> 28 ;
29 [label="#DifferenceCherry <= 0.306\ngini = 0.278\nsamples = 6\nvalue = [5, 1]"] ;
28 -> 29 ;
30 [label="gini = 0.444\nsamples = 3\nvalue = [2, 1]"] ;
29 -> 30 ;
31 [label="gini = 0.0\nsamples = 3\nvalue = [3, 0]"] ;
29 -> 31 ;
32 [label="gini = 0.0\nsamples = 13\nvalue = [13, 0]"] ;
28 -> 32 ;
33 [label="gini = 0.48\nsamples = 5\nvalue = [3, 2]"] ;
19 -> 33 ;
34 [label="gini = 0.0\nsamples = 28\nvalue = [28, 0]"] ;
18 -> 34 ;
35 [label="Av LCAL <= 2.394\ngini = 0.466\nsamples = 365\nvalue = [230, 135]"] ;
1 -> 35 ;
36 [label="#TreesCherry <= 0.789\ngini = 0.323\nsamples = 89\nvalue = [71, 18]"] ;
35 -> 36 ;
37 [label="#DifferenceCherry <= 0.257\ngini = 0.251\nsamples = 68\nvalue = [58, 10]"] ;
36 -> 37 ;
38 [label="#TreesCherry <= 0.652\ngini = 0.314\nsamples = 41\nvalue = [33, 8]"] ;
37 -> 38 ;
39 [label="gini = 0.0\nsamples = 6\nvalue = [6, 0]"] ;
38 -> 39 ;
40 [label="#DifferenceCherry <= 0.236\ngini = 0.353\nsamples = 35\nvalue = [27, 8]"] ;
38 -> 40 ;
41 [label="Av Dist <= 2.27\ngini = 0.32\nsamples = 30\nvalue = [24, 6]"] ;
40 -> 41 ;
42 [label="gini = 0.0\nsamples = 9\nvalue = [9, 0]"] ;
41 -> 42 ;
43 [label="#TreesCherry <= 0.718\ngini = 0.408\nsamples = 21\nvalue = [15, 6]"] ;
41 -> 43 ;
44 [label="gini = 0.346\nsamples = 18\nvalue = [14, 4]"] ;
43 -> 44 ;
45 [label="gini = 0.444\nsamples = 3\nvalue = [1, 2]"] ;
43 -> 45 ;
46 [label="gini = 0.48\nsamples = 5\nvalue = [3, 2]"] ;
40 -> 46 ;
47 [label="#DifferenceCherry <= 0.387\ngini = 0.137\nsamples = 27\nvalue = [25, 2]"] ;
37 -> 47 ;
48 [label="#TreesCherry <= 0.683\ngini = 0.087\nsamples = 22\nvalue = [21, 1]"] ;
47 -> 48 ;
49 [label="#DifferenceCherry <= 0.343\ngini = 0.124\nsamples = 15\nvalue = [14, 1]"] ;
48 -> 49 ;
50 [label="gini = 0.18\nsamples = 10\nvalue = [9, 1]"] ;
49 -> 50 ;
51 [label="gini = 0.0\nsamples = 5\nvalue = [5, 0]"] ;
49 -> 51 ;
52 [label="gini = 0.0\nsamples = 7\nvalue = [7, 0]"] ;
48 -> 52 ;
53 [label="gini = 0.32\nsamples = 5\nvalue = [4, 1]"] ;
47 -> 53 ;
54 [label="Av LCAL <= 2.155\ngini = 0.472\nsamples = 21\nvalue = [13, 8]"] ;
36 -> 54 ;
55 [label="#TreesCherry <= 0.902\ngini = 0.153\nsamples = 12\nvalue = [11, 1]"] ;
54 -> 55 ;
56 [label="#DifferenceCherry <= 0.071\ngini = 0.375\nsamples = 4\nvalue = [3, 1]"] ;
55 -> 56 ;
57 [label="gini = 0.5\nsamples = 2\nvalue = [1, 1]"] ;
56 -> 57 ;
58 [label="gini = 0.0\nsamples = 2\nvalue = [2, 0]"] ;
56 -> 58 ;
59 [label="gini = 0.0\nsamples = 8\nvalue = [8, 0]"] ;
55 -> 59 ;
60 [label="#TreesCherry <= 0.826\ngini = 0.346\nsamples = 9\nvalue = [2, 7]"] ;
54 -> 60 ;
61 [label="#DifferenceCherry <= 0.1\ngini = 0.5\nsamples = 4\nvalue = [2, 2]"] ;
60 -> 61 ;
62 [label="gini = 0.0\nsamples = 2\nvalue = [2, 0]"] ;
61 -> 62 ;
63 [label="gini = 0.0\nsamples = 2\nvalue = [0, 2]"] ;
61 -> 63 ;
64 [label="gini = 0.0\nsamples = 5\nvalue = [0, 5]"] ;
60 -> 64 ;
65 [label="#TreesCherry <= 0.553\ngini = 0.488\nsamples = 276\nvalue = [159, 117]"] ;
35 -> 65 ;
66 [label="#DifferenceCherry <= 0.567\ngini = 0.461\nsamples = 175\nvalue = [112, 63]"] ;
65 -> 66 ;
67 [label="Av LCAL <= 2.513\ngini = 0.441\nsamples = 143\nvalue = [96, 47]"] ;
66 -> 67 ;
68 [label="#TreesCherry <= 0.534\ngini = 0.482\nsamples = 84\nvalue = [50, 34]"] ;
67 -> 68 ;
69 [label="#TreesCherry <= 0.528\ngini = 0.491\nsamples = 76\nvalue = [43, 33]"] ;
68 -> 69 ;
70 [label="Av Dist <= 2.487\ngini = 0.479\nsamples = 68\nvalue = [41, 27]"] ;
69 -> 70 ;
71 [label="gini = 0.0\nsamples = 5\nvalue = [5, 0]"] ;
70 -> 71 ;
72 [label="gini = 0.49\nsamples = 63\nvalue = [36, 27]"] ;
70 -> 72 ;
73 [label="#DifferenceCherry <= 0.235\ngini = 0.375\nsamples = 8\nvalue = [2, 6]"] ;
69 -> 73 ;
74 [label="gini = 0.48\nsamples = 5\nvalue = [2, 3]"] ;
73 -> 74 ;
75 [label="gini = 0.0\nsamples = 3\nvalue = [0, 3]"] ;
73 -> 75 ;
76 [label="#DifferenceCherry <= 0.452\ngini = 0.219\nsamples = 8\nvalue = [7, 1]"] ;
68 -> 76 ;
77 [label="gini = 0.0\nsamples = 6\nvalue = [6, 0]"] ;
76 -> 77 ;
78 [label="Av Dist <= 2.458\ngini = 0.5\nsamples = 2\nvalue = [1, 1]"] ;
76 -> 78 ;
79 [label="gini = 0.0\nsamples = 1\nvalue = [0, 1]"] ;
78 -> 79 ;
80 [label="gini = 0.0\nsamples = 1\nvalue = [1, 0]"] ;
78 -> 80 ;
81 [label="Av Dist <= 2.581\ngini = 0.344\nsamples = 59\nvalue = [46, 13]"] ;
67 -> 81 ;
82 [label="Av LCAL <= 2.553\ngini = 0.17\nsamples = 32\nvalue = [29, 3]"] ;
81 -> 82 ;
83 [label="#DifferenceCherry <= 0.537\ngini = 0.298\nsamples = 11\nvalue = [9, 2]"] ;
82 -> 83 ;
84 [label="gini = 0.375\nsamples = 8\nvalue = [6, 2]"] ;
83 -> 84 ;
85 [label="gini = 0.0\nsamples = 3\nvalue = [3, 0]"] ;
83 -> 85 ;
86 [label="#TreesCherry <= 0.433\ngini = 0.091\nsamples = 21\nvalue = [20, 1]"] ;
82 -> 86 ;
87 [label="gini = 0.18\nsamples = 10\nvalue = [9, 1]"] ;
86 -> 87 ;
88 [label="gini = 0.0\nsamples = 11\nvalue = [11, 0]"] ;
86 -> 88 ;
89 [label="#DifferenceCherry <= 0.525\ngini = 0.466\nsamples = 27\nvalue = [17, 10]"] ;
81 -> 89 ;
90 [label="#TreesCherry <= 0.408\ngini = 0.453\nsamples = 26\nvalue = [17, 9]"] ;
89 -> 90 ;
91 [label="gini = 0.492\nsamples = 16\nvalue = [9, 7]"] ;
90 -> 91 ;
92 [label="gini = 0.32\nsamples = 10\nvalue = [8, 2]"] ;
90 -> 92 ;
93 [label="gini = 0.0\nsamples = 1\nvalue = [0, 1]"] ;
89 -> 93 ;
94 [label="Av LCAL <= 2.592\ngini = 0.5\nsamples = 32\nvalue = [16, 16]"] ;
66 -> 94 ;
95 [label="#DifferenceCherry <= 0.581\ngini = 0.444\nsamples = 18\nvalue = [6, 12]"] ;
94 -> 95 ;
96 [label="Av LCAL <= 2.575\ngini = 0.494\nsamples = 9\nvalue = [5, 4]"] ;
95 -> 96 ;
97 [label="gini = 0.49\nsamples = 7\nvalue = [4, 3]"] ;
96 -> 97 ;
98 [label="gini = 0.5\nsamples = 2\nvalue = [1, 1]"] ;
96 -> 98 ;
99 [label="gini = 0.198\nsamples = 9\nvalue = [1, 8]"] ;
95 -> 99 ;
100 [label="Av LCAL <= 2.7\ngini = 0.408\nsamples = 14\nvalue = [10, 4]"] ;
94 -> 100 ;
101 [label="gini = 0.426\nsamples = 13\nvalue = [9, 4]"] ;
100 -> 101 ;
102 [label="gini = 0.0\nsamples = 1\nvalue = [1, 0]"] ;
100 -> 102 ;
103 [label="Av Dist <= 2.343\ngini = 0.498\nsamples = 101\nvalue = [47, 54]"] ;
65 -> 103 ;
104 [label="gini = 0.0\nsamples = 3\nvalue = [3, 0]"] ;
103 -> 104 ;
105 [label="#TreesCherry <= 0.817\ngini = 0.495\nsamples = 98\nvalue = [44, 54]"] ;
103 -> 105 ;
106 [label="#TreesCherry <= 0.757\ngini = 0.492\nsamples = 96\nvalue = [42, 54]"] ;
105 -> 106 ;
107 [label="#TreesCherry <= 0.725\ngini = 0.498\nsamples = 88\nvalue = [41, 47]"] ;
106 -> 107 ;
108 [label="Av LCAL <= 2.425\ngini = 0.493\nsamples = 84\nvalue = [37, 47]"] ;
107 -> 108 ;
109 [label="gini = 0.497\nsamples = 41\nvalue = [22, 19]"] ;
108 -> 109 ;
110 [label="gini = 0.454\nsamples = 43\nvalue = [15, 28]"] ;
108 -> 110 ;
111 [label="gini = 0.0\nsamples = 4\nvalue = [4, 0]"] ;
107 -> 111 ;
112 [label="Av Dist <= 2.75\ngini = 0.219\nsamples = 8\nvalue = [1, 7]"] ;
106 -> 112 ;
113 [label="gini = 0.0\nsamples = 6\nvalue = [0, 6]"] ;
112 -> 113 ;
114 [label="#DifferenceCherry <= 0.1\ngini = 0.5\nsamples = 2\nvalue = [1, 1]"] ;
112 -> 114 ;
115 [label="gini = 0.0\nsamples = 1\nvalue = [1, 0]"] ;
114 -> 115 ;
116 [label="gini = 0.0\nsamples = 1\nvalue = [0, 1]"] ;
114 -> 116 ;
117 [label="gini = 0.0\nsamples = 2\nvalue = [2, 0]"] ;
105 -> 117 ;
118 [label="#DifferenceCherry <= 0.13\ngini = 0.482\nsamples = 905\nvalue = [366, 539]"] ;
0 -> 118 [labeldistance=2.5, labelangle=-45, headlabel="False"] ;
119 [label="Av LCAL <= 6.733\ngini = 0.494\nsamples = 197\nvalue = [109, 88]"] ;
118 -> 119 ;
120 [label="Av Dist <= 3.699\ngini = 0.5\nsamples = 156\nvalue = [79, 77]"] ;
119 -> 120 ;
121 [label="Av LCAL <= 3.211\ngini = 0.478\nsamples = 101\nvalue = [61, 40]"] ;
120 -> 121 ;
122 [label="#TreesCherry <= 0.136\ngini = 0.298\nsamples = 11\nvalue = [2, 9]"] ;
121 -> 122 ;
123 [label="gini = 0.0\nsamples = 1\nvalue = [1, 0]"] ;
122 -> 123 ;
124 [label="Av Dist <= 3.146\ngini = 0.18\nsamples = 10\nvalue = [1, 9]"] ;
122 -> 124 ;
125 [label="gini = 0.0\nsamples = 5\nvalue = [0, 5]"] ;
124 -> 125 ;
126 [label="Av Dist <= 3.175\ngini = 0.32\nsamples = 5\nvalue = [1, 4]"] ;
124 -> 126 ;
127 [label="gini = 0.0\nsamples = 1\nvalue = [1, 0]"] ;
126 -> 127 ;
128 [label="gini = 0.0\nsamples = 4\nvalue = [0, 4]"] ;
126 -> 128 ;
129 [label="#TreesCherry <= 0.563\ngini = 0.452\nsamples = 90\nvalue = [59, 31]"] ;
121 -> 129 ;
130 [label="Av LCAL <= 3.627\ngini = 0.492\nsamples = 48\nvalue = [27, 21]"] ;
129 -> 130 ;
131 [label="gini = 0.0\nsamples = 12\nvalue = [12, 0]"] ;
130 -> 131 ;
132 [label="Av LCAL <= 3.875\ngini = 0.486\nsamples = 36\nvalue = [15, 21]"] ;
130 -> 132 ;
133 [label="gini = 0.0\nsamples = 5\nvalue = [0, 5]"] ;
132 -> 133 ;
134 [label="Av LCAL <= 4.947\ngini = 0.499\nsamples = 31\nvalue = [15, 16]"] ;
132 -> 134 ;
135 [label="gini = 0.397\nsamples = 11\nvalue = [8, 3]"] ;
134 -> 135 ;
136 [label="gini = 0.455\nsamples = 20\nvalue = [7, 13]"] ;
134 -> 136 ;
137 [label="Av LCAL <= 3.675\ngini = 0.363\nsamples = 42\nvalue = [32, 10]"] ;
129 -> 137 ;
138 [label="Av Dist <= 2.799\ngini = 0.5\nsamples = 16\nvalue = [8, 8]"] ;
137 -> 138 ;
139 [label="gini = 0.0\nsamples = 4\nvalue = [4, 0]"] ;
138 -> 139 ;
140 [label="Av Dist <= 3.083\ngini = 0.444\nsamples = 12\nvalue = [4, 8]"] ;
138 -> 140 ;
141 [label="gini = 0.32\nsamples = 10\nvalue = [2, 8]"] ;
140 -> 141 ;
142 [label="gini = 0.0\nsamples = 2\nvalue = [2, 0]"] ;
140 -> 142 ;
143 [label="#TreesCherry <= 0.732\ngini = 0.142\nsamples = 26\nvalue = [24, 2]"] ;
137 -> 143 ;
144 [label="gini = 0.0\nsamples = 18\nvalue = [18, 0]"] ;
143 -> 144 ;
145 [label="Av LCAL <= 4.071\ngini = 0.375\nsamples = 8\nvalue = [6, 2]"] ;
143 -> 145 ;
146 [label="gini = 0.5\nsamples = 4\nvalue = [2, 2]"] ;
145 -> 146 ;
147 [label="gini = 0.0\nsamples = 4\nvalue = [4, 0]"] ;
145 -> 147 ;
148 [label="#TreesCherry <= 0.384\ngini = 0.44\nsamples = 55\nvalue = [18, 37]"] ;
120 -> 148 ;
149 [label="Av LCAL <= 5.624\ngini = 0.48\nsamples = 15\nvalue = [9, 6]"] ;
148 -> 149 ;
150 [label="Av Dist <= 4.237\ngini = 0.198\nsamples = 9\nvalue = [8, 1]"] ;
149 -> 150 ;
151 [label="Av LCAL <= 4.929\ngini = 0.375\nsamples = 4\nvalue = [3, 1]"] ;
150 -> 151 ;
152 [label="gini = 0.0\nsamples = 1\nvalue = [0, 1]"] ;
151 -> 152 ;
153 [label="gini = 0.0\nsamples = 3\nvalue = [3, 0]"] ;
151 -> 153 ;
154 [label="gini = 0.0\nsamples = 5\nvalue = [5, 0]"] ;
150 -> 154 ;
155 [label="#TreesCherry <= 0.31\ngini = 0.278\nsamples = 6\nvalue = [1, 5]"] ;
149 -> 155 ;
156 [label="gini = 0.0\nsamples = 5\nvalue = [0, 5]"] ;
155 -> 156 ;
157 [label="gini = 0.0\nsamples = 1\nvalue = [1, 0]"] ;
155 -> 157 ;
158 [label="Av LCAL <= 5.875\ngini = 0.349\nsamples = 40\nvalue = [9, 31]"] ;
148 -> 158 ;
159 [label="#TreesCherry <= 0.681\ngini = 0.204\nsamples = 26\nvalue = [3, 23]"] ;
158 -> 159 ;
160 [label="Av LCAL <= 3.994\ngini = 0.147\nsamples = 25\nvalue = [2, 23]"] ;
159 -> 160 ;
161 [label="gini = 0.0\nsamples = 1\nvalue = [1, 0]"] ;
160 -> 161 ;
162 [label="Av Dist <= 3.783\ngini = 0.08\nsamples = 24\nvalue = [1, 23]"] ;
160 -> 162 ;
163 [label="gini = 0.245\nsamples = 7\nvalue = [1, 6]"] ;
162 -> 163 ;
164 [label="gini = 0.0\nsamples = 17\nvalue = [0, 17]"] ;
162 -> 164 ;
165 [label="gini = 0.0\nsamples = 1\nvalue = [1, 0]"] ;
159 -> 165 ;
166 [label="Av LCAL <= 6.41\ngini = 0.49\nsamples = 14\nvalue = [6, 8]"] ;
158 -> 166 ;
167 [label="Av Dist <= 4.267\ngini = 0.444\nsamples = 9\nvalue = [6, 3]"] ;
166 -> 167 ;
168 [label="gini = 0.0\nsamples = 1\nvalue = [0, 1]"] ;
167 -> 168 ;
169 [label="Av Dist <= 5.083\ngini = 0.375\nsamples = 8\nvalue = [6, 2]"] ;
167 -> 169 ;
170 [label="gini = 0.0\nsamples = 5\nvalue = [5, 0]"] ;
169 -> 170 ;
171 [label="gini = 0.444\nsamples = 3\nvalue = [1, 2]"] ;
169 -> 171 ;
172 [label="gini = 0.0\nsamples = 5\nvalue = [0, 5]"] ;
166 -> 172 ;
173 [label="#TreesCherry <= 0.183\ngini = 0.393\nsamples = 41\nvalue = [30, 11]"] ;
119 -> 173 ;
174 [label="Av Dist <= 7.917\ngini = 0.278\nsamples = 6\nvalue = [1, 5]"] ;
173 -> 174 ;
175 [label="gini = 0.0\nsamples = 5\nvalue = [0, 5]"] ;
174 -> 175 ;
176 [label="gini = 0.0\nsamples = 1\nvalue = [1, 0]"] ;
174 -> 176 ;
177 [label="#TreesCherry <= 0.411\ngini = 0.284\nsamples = 35\nvalue = [29, 6]"] ;
173 -> 177 ;
178 [label="Av LCAL <= 8.406\ngini = 0.408\nsamples = 21\nvalue = [15, 6]"] ;
177 -> 178 ;
179 [label="Av Dist <= 6.3\ngini = 0.496\nsamples = 11\nvalue = [6, 5]"] ;
178 -> 179 ;
180 [label="Av Dist <= 4.833\ngini = 0.444\nsamples = 9\nvalue = [6, 3]"] ;
179 -> 180 ;
181 [label="Av Dist <= 4.1\ngini = 0.375\nsamples = 4\nvalue = [1, 3]"] ;
180 -> 181 ;
182 [label="gini = 0.0\nsamples = 1\nvalue = [1, 0]"] ;
181 -> 182 ;
183 [label="gini = 0.0\nsamples = 3\nvalue = [0, 3]"] ;
181 -> 183 ;
184 [label="gini = 0.0\nsamples = 5\nvalue = [5, 0]"] ;
180 -> 184 ;
185 [label="gini = 0.0\nsamples = 2\nvalue = [0, 2]"] ;
179 -> 185 ;
186 [label="#TreesCherry <= 0.372\ngini = 0.18\nsamples = 10\nvalue = [9, 1]"] ;
178 -> 186 ;
187 [label="gini = 0.0\nsamples = 8\nvalue = [8, 0]"] ;
186 -> 187 ;
188 [label="#TreesCherry <= 0.388\ngini = 0.5\nsamples = 2\nvalue = [1, 1]"] ;
186 -> 188 ;
189 [label="gini = 0.0\nsamples = 1\nvalue = [0, 1]"] ;
188 -> 189 ;
190 [label="gini = 0.0\nsamples = 1\nvalue = [1, 0]"] ;
188 -> 190 ;
191 [label="gini = 0.0\nsamples = 14\nvalue = [14, 0]"] ;
177 -> 191 ;
192 [label="#TreesCherry <= 0.282\ngini = 0.462\nsamples = 708\nvalue = [257, 451]"] ;
118 -> 192 ;
193 [label="Av LCAL <= 3.536\ngini = 0.491\nsamples = 109\nvalue = [62, 47]"] ;
192 -> 193 ;
194 [label="gini = 0.0\nsamples = 13\nvalue = [13, 0]"] ;
193 -> 194 ;
195 [label="#DifferenceCherry <= 0.264\ngini = 0.5\nsamples = 96\nvalue = [49, 47]"] ;
193 -> 195 ;
196 [label="Av LCAL <= 5.3\ngini = 0.153\nsamples = 12\nvalue = [1, 11]"] ;
195 -> 196 ;
197 [label="gini = 0.0\nsamples = 9\nvalue = [0, 9]"] ;
196 -> 197 ;
198 [label="#TreesCherry <= 0.225\ngini = 0.444\nsamples = 3\nvalue = [1, 2]"] ;
196 -> 198 ;
199 [label="gini = 0.0\nsamples = 1\nvalue = [1, 0]"] ;
198 -> 199 ;
200 [label="gini = 0.0\nsamples = 2\nvalue = [0, 2]"] ;
198 -> 200 ;
201 [label="Av Dist <= 7.675\ngini = 0.49\nsamples = 84\nvalue = [48, 36]"] ;
195 -> 201 ;
202 [label="Av Dist <= 3.867\ngini = 0.444\nsamples = 63\nvalue = [42, 21]"] ;
201 -> 202 ;
203 [label="gini = 0.0\nsamples = 9\nvalue = [9, 0]"] ;
202 -> 203 ;
204 [label="Av LCAL <= 4.65\ngini = 0.475\nsamples = 54\nvalue = [33, 21]"] ;
202 -> 204 ;
205 [label="#DifferenceCherry <= 0.817\ngini = 0.375\nsamples = 12\nvalue = [3, 9]"] ;
204 -> 205 ;
206 [label="gini = 0.444\nsamples = 9\nvalue = [3, 6]"] ;
205 -> 206 ;
207 [label="gini = 0.0\nsamples = 3\nvalue = [0, 3]"] ;
205 -> 207 ;
208 [label="Av Dist <= 4.55\ngini = 0.408\nsamples = 42\nvalue = [30, 12]"] ;
204 -> 208 ;
209 [label="gini = 0.0\nsamples = 11\nvalue = [11, 0]"] ;
208 -> 209 ;
210 [label="gini = 0.475\nsamples = 31\nvalue = [19, 12]"] ;
208 -> 210 ;
211 [label="#TreesCherry <= 0.172\ngini = 0.408\nsamples = 21\nvalue = [6, 15]"] ;
201 -> 211 ;
212 [label="#DifferenceCherry <= 0.89\ngini = 0.165\nsamples = 11\nvalue = [1, 10]"] ;
211 -> 212 ;
213 [label="Av Dist <= 7.917\ngini = 0.32\nsamples = 5\nvalue = [1, 4]"] ;
212 -> 213 ;
214 [label="gini = 0.0\nsamples = 1\nvalue = [1, 0]"] ;
213 -> 214 ;
215 [label="gini = 0.0\nsamples = 4\nvalue = [0, 4]"] ;
213 -> 215 ;
216 [label="gini = 0.0\nsamples = 6\nvalue = [0, 6]"] ;
212 -> 216 ;
217 [label="#TreesCherry <= 0.236\ngini = 0.5\nsamples = 10\nvalue = [5, 5]"] ;
211 -> 217 ;
218 [label="gini = 0.0\nsamples = 2\nvalue = [2, 0]"] ;
217 -> 218 ;
219 [label="Av LCAL <= 11.5\ngini = 0.469\nsamples = 8\nvalue = [3, 5]"] ;
217 -> 219 ;
220 [label="gini = 0.408\nsamples = 7\nvalue = [2, 5]"] ;
219 -> 220 ;
221 [label="gini = 0.0\nsamples = 1\nvalue = [1, 0]"] ;
219 -> 221 ;
222 [label="Av LCAL <= 4.658\ngini = 0.439\nsamples = 599\nvalue = [195, 404]"] ;
192 -> 222 ;
223 [label="Av LCAL <= 4.517\ngini = 0.367\nsamples = 211\nvalue = [51, 160]"] ;
222 -> 223 ;
224 [label="#DifferenceCherry <= 0.487\ngini = 0.389\nsamples = 189\nvalue = [50, 139]"] ;
223 -> 224 ;
225 [label="#TreesCherry <= 0.556\ngini = 0.43\nsamples = 118\nvalue = [37, 81]"] ;
224 -> 225 ;
226 [label="Av LCAL <= 4.303\ngini = 0.488\nsamples = 26\nvalue = [15, 11]"] ;
225 -> 226 ;
227 [label="#DifferenceCherry <= 0.18\ngini = 0.454\nsamples = 23\nvalue = [15, 8]"] ;
226 -> 227 ;
228 [label="gini = 0.0\nsamples = 2\nvalue = [0, 2]"] ;
227 -> 228 ;
229 [label="gini = 0.408\nsamples = 21\nvalue = [15, 6]"] ;
227 -> 229 ;
230 [label="gini = 0.0\nsamples = 3\nvalue = [0, 3]"] ;
226 -> 230 ;
231 [label="Av Dist <= 3.857\ngini = 0.364\nsamples = 92\nvalue = [22, 70]"] ;
225 -> 231 ;
232 [label="Av Dist <= 3.367\ngini = 0.32\nsamples = 85\nvalue = [17, 68]"] ;
231 -> 232 ;
233 [label="gini = 0.415\nsamples = 51\nvalue = [15, 36]"] ;
232 -> 233 ;
234 [label="gini = 0.111\nsamples = 34\nvalue = [2, 32]"] ;
232 -> 234 ;
235 [label="Av LCAL <= 4.354\ngini = 0.408\nsamples = 7\nvalue = [5, 2]"] ;
231 -> 235 ;
236 [label="gini = 0.48\nsamples = 5\nvalue = [3, 2]"] ;
235 -> 236 ;
237 [label="gini = 0.0\nsamples = 2\nvalue = [2, 0]"] ;
235 -> 237 ;
238 [label="Av Dist <= 3.121\ngini = 0.299\nsamples = 71\nvalue = [13, 58]"] ;
224 -> 238 ;
239 [label="gini = 0.0\nsamples = 1\nvalue = [1, 0]"] ;
238 -> 239 ;
240 [label="Av LCAL <= 3.567\ngini = 0.284\nsamples = 70\nvalue = [12, 58]"] ;
238 -> 240 ;
241 [label="Av Dist <= 3.171\ngini = 0.091\nsamples = 21\nvalue = [1, 20]"] ;
240 -> 241 ;
242 [label="gini = 0.375\nsamples = 4\nvalue = [1, 3]"] ;
241 -> 242 ;
243 [label="gini = 0.0\nsamples = 17\nvalue = [0, 17]"] ;
241 -> 243 ;
244 [label="Av LCAL <= 3.602\ngini = 0.348\nsamples = 49\nvalue = [11, 38]"] ;
240 -> 244 ;
245 [label="gini = 0.0\nsamples = 3\nvalue = [3, 0]"] ;
244 -> 245 ;
246 [label="gini = 0.287\nsamples = 46\nvalue = [8, 38]"] ;
244 -> 246 ;
247 [label="Av Dist <= 4.519\ngini = 0.087\nsamples = 22\nvalue = [1, 21]"] ;
223 -> 247 ;
248 [label="gini = 0.0\nsamples = 16\nvalue = [0, 16]"] ;
247 -> 248 ;
249 [label="Av Dist <= 4.577\ngini = 0.278\nsamples = 6\nvalue = [1, 5]"] ;
247 -> 249 ;
250 [label="gini = 0.375\nsamples = 4\nvalue = [1, 3]"] ;
249 -> 250 ;
251 [label="gini = 0.0\nsamples = 2\nvalue = [0, 2]"] ;
249 -> 251 ;
252 [label="Av Dist <= 4.261\ngini = 0.467\nsamples = 388\nvalue = [144, 244]"] ;
222 -> 252 ;
253 [label="Av LCAL <= 4.782\ngini = 0.481\nsamples = 57\nvalue = [34, 23]"] ;
252 -> 253 ;
254 [label="gini = 0.0\nsamples = 5\nvalue = [5, 0]"] ;
253 -> 254 ;
255 [label="#DifferenceCherry <= 0.236\ngini = 0.493\nsamples = 52\nvalue = [29, 23]"] ;
253 -> 255 ;
256 [label="gini = 0.0\nsamples = 5\nvalue = [5, 0]"] ;
255 -> 256 ;
257 [label="Av Dist <= 3.138\ngini = 0.5\nsamples = 47\nvalue = [24, 23]"] ;
255 -> 257 ;
258 [label="gini = 0.0\nsamples = 5\nvalue = [0, 5]"] ;
257 -> 258 ;
259 [label="#TreesCherry <= 0.732\ngini = 0.49\nsamples = 42\nvalue = [24, 18]"] ;
257 -> 259 ;
260 [label="gini = 0.473\nsamples = 39\nvalue = [24, 15]"] ;
259 -> 260 ;
261 [label="gini = 0.0\nsamples = 3\nvalue = [0, 3]"] ;
259 -> 261 ;
262 [label="#DifferenceCherry <= 0.394\ngini = 0.444\nsamples = 331\nvalue = [110, 221]"] ;
252 -> 262 ;
263 [label="Av LCAL <= 7.25\ngini = 0.5\nsamples = 57\nvalue = [29, 28]"] ;
262 -> 263 ;
264 [label="Av LCAL <= 6.298\ngini = 0.489\nsamples = 47\nvalue = [27, 20]"] ;
263 -> 264 ;
265 [label="Av Dist <= 4.708\ngini = 0.494\nsamples = 36\nvalue = [16, 20]"] ;
264 -> 265 ;
266 [label="gini = 0.444\nsamples = 15\nvalue = [10, 5]"] ;
265 -> 266 ;
267 [label="gini = 0.408\nsamples = 21\nvalue = [6, 15]"] ;
265 -> 267 ;
268 [label="gini = 0.0\nsamples = 11\nvalue = [11, 0]"] ;
264 -> 268 ;
269 [label="#TreesCherry <= 0.297\ngini = 0.32\nsamples = 10\nvalue = [2, 8]"] ;
263 -> 269 ;
270 [label="gini = 0.0\nsamples = 1\nvalue = [1, 0]"] ;
269 -> 270 ;
271 [label="#TreesCherry <= 0.506\ngini = 0.198\nsamples = 9\nvalue = [1, 8]"] ;
269 -> 271 ;
272 [label="gini = 0.0\nsamples = 3\nvalue = [0, 3]"] ;
271 -> 272 ;
273 [label="gini = 0.278\nsamples = 6\nvalue = [1, 5]"] ;
271 -> 273 ;
274 [label="Av LCAL <= 10.905\ngini = 0.416\nsamples = 274\nvalue = [81, 193]"] ;
262 -> 274 ;
275 [label="#TreesCherry <= 0.325\ngini = 0.406\nsamples = 268\nvalue = [76, 192]"] ;
274 -> 275 ;
276 [label="Av LCAL <= 7.268\ngini = 0.121\nsamples = 31\nvalue = [2, 29]"] ;
275 -> 276 ;
277 [label="gini = 0.375\nsamples = 8\nvalue = [2, 6]"] ;
276 -> 277 ;
278 [label="gini = 0.0\nsamples = 23\nvalue = [0, 23]"] ;
276 -> 278 ;
279 [label="#TreesCherry <= 0.387\ngini = 0.429\nsamples = 237\nvalue = [74, 163]"] ;
275 -> 279 ;
280 [label="gini = 0.495\nsamples = 51\nvalue = [23, 28]"] ;
279 -> 280 ;
281 [label="gini = 0.398\nsamples = 186\nvalue = [51, 135]"] ;
279 -> 281 ;
282 [label="Av Dist <= 9.095\ngini = 0.278\nsamples = 6\nvalue = [5, 1]"] ;
274 -> 282 ;
283 [label="gini = 0.0\nsamples = 4\nvalue = [4, 0]"] ;
282 -> 283 ;
284 [label="gini = 0.5\nsamples = 2\nvalue = [1, 1]"] ;
282 -> 284 ;
}